#include <SNN/SNN_Config.h>
#include <stdint.h>

SNNTYPE weight0[] = {
    0.443234,-1.183436,0.123223,1.195651,-0.280245,-1.217004,-1.432391,-0.851590,
    0.662869,-0.761632,-1.397157,-1.371615,-1.145425,0.588714,-1.209581,2.009269,
    -0.349371,-0.007480,1.067042,-1.250421,-1.175168,1.233314,-2.015368,-2.875675,
    0.220945,-0.281583,1.211984,0.548937,-0.997435,1.654247,-0.911728,1.674887,
    -2.039852,1.351527,0.749665,-0.557076,0.897693,0.248029,0.048425,-0.479243,
    -1.279791,0.298831,-1.202437,1.884519,1.872256,0.616291,-0.101911,0.586340,
    2.038939,0.294613,0.064176,-1.115085,-1.326581,0.636425,0.035005,-1.046853,
    -1.154726,-0.749561,0.590925,0.096767,1.267765,-0.684144,2.653957,0.904710,
    -0.354658,1.503716,-0.949836,0.664451,1.718417,-0.356986,2.112833,1.024322,
    0.802091,0.108187,-0.760220,-0.481747,0.843041,2.181753,0.116661,0.309364
};
SNNTYPE bias0[] = {0.187228,0.346896,-0.188748,0.343434,0.119397,0.041135,0.058411,0.055541,-0.278995,-0.068485};

SNNTYPE weight1[] = {
    1.363844,1.088452,-0.818894,1.941534,-0.224020,-0.365610,0.236844,-1.126604,0.247045,0.266984,
    -1.502588,-2.295708,1.651786,1.618356,-1.286640,-0.128859,-0.112178,0.268879,1.251177,0.214903,
    0.119779,-1.035733,0.321169,-0.036714,0.624933,0.288210,-0.298319,-0.475662,-1.025891,-0.001133,
    -1.071504,0.262909,1.249969,0.217967,-0.316651,0.690029,-0.736706,-0.756878,-0.553366,0.946391,
    -0.142020,1.908813,0.404418,-0.173059,1.519707,-0.214717,-1.199984,-0.056844,-0.931130,0.024561,
    0.260665,-1.291321,1.550185,-2.311388,-0.684235,0.025397,-1.028859,0.406761,-1.591657,1.696593,
    0.744195,1.536664,0.629937,-0.376571,0.165300,0.477859,-2.526909,0.857887,0.613571,-0.361874,
    1.100399,-0.435533,-1.571814,-1.316195,1.652473,-0.516271,0.446935,1.198510,-1.306445,1.077016,
    -1.637339,-1.003994,1.708630,0.383620,0.943934,-0.020620,1.160120,-0.305525,-0.232211,0.132894,
    -1.230786,-0.787075,-0.292638,-0.025750,0.783304,1.716740,0.455667,1.629402,0.651275,-0.213079
};
SNNTYPE bias1[] = {-0.191055,0.280381,-0.148748,-0.011795,-0.300464,0.059660,0.134967,-0.070420,0.002344,0.045050};


SNNTYPE weight2[] = {
    0.605396,0.963170,0.116647,-3.402133,1.514080,-1.655823,0.137386,-2.298528,-0.561726,0.061682,
    -0.386248,-0.512846,0.293309,0.758191,1.080264,-0.572849,-2.113024,0.206608,0.664591,0.965549  
};
SNNTYPE bias2[] = {-0.247538,0.197890};